digraph Tree {
node [shape=box, style="filled, rounded", color="black", fontname=helvetica] ;
edge [fontname=helvetica] ;
0 [label="petal length (cm) <= 2.7\ngini = 0.66\nsamples = 88\nvalue = [42, 53, 55]\nclass = virginica", fillcolor="#fcfbfe"] ;
1 [label="gini = 0.0\nsamples = 26\nvalue = [42, 0, 0]\nclass = setosa", fillcolor="#e58139"] ;
0 -> 1 [labeldistance=2.5, labelangle=45, headlabel="True"] ;
2 [label="petal width (cm) <= 1.75\ngini = 0.5\nsamples = 62\nvalue = [0, 53, 55]\nclass = virginica", fillcolor="#faf8fe"] ;
0 -> 2 [labeldistance=2.5, labelangle=-45, headlabel="False"] ;
3 [label="petal length (cm) <= 4.95\ngini = 0.13\nsamples = 35\nvalue = [0, 53, 4]\nclass = versicolor", fillcolor="#48e78b"] ;
2 -> 3 ;
4 [label="gini = 0.0\nsamples = 32\nvalue = [0, 51, 0]\nclass = versicolor", fillcolor="#39e581"] ;
3 -> 4 ;
5 [label="petal width (cm) <= 1.6\ngini = 0.44\nsamples = 3\nvalue = [0, 2, 4]\nclass = virginica", fillcolor="#c09cf2"] ;
3 -> 5 ;
6 [label="gini = 0.0\nsamples = 2\nvalue = [0, 0, 4]\nclass = virginica", fillcolor="#8139e5"] ;
5 -> 6 ;
7 [label="gini = 0.0\nsamples = 1\nvalue = [0, 2, 0]\nclass = versicolor", fillcolor="#39e581"] ;
5 -> 7 ;
8 [label="gini = 0.0\nsamples = 27\nvalue = [0, 0, 51]\nclass = virginica", fillcolor="#8139e5"] ;
2 -> 8 ;
}